digraph Tree {
node [shape=box, style="filled, rounded", color="black", fontname="helvetica"] ;
edge [fontname="helvetica"] ;
0 [label="mean concave points <= 0.051\ngini = 0.468\nsamples = 381\nvalue = [239, 142]\nclass = Name of first class", fillcolor="#f4ccaf"] ;
1 [label="worst area <= 957.45\ngini = 0.097\nsamples = 235\nvalue = [223, 12]\nclass = Name of first class", fillcolor="#e68844"] ;
0 -> 1 [labeldistance=2.5, labelangle=45, headlabel="True"] ;
2 [label="area error <= 42.19\ngini = 0.06\nsamples = 227\nvalue = [220, 7]\nclass = Name of first class", fillcolor="#e6853f"] ;
1 -> 2 ;
3 [label="worst smoothness <= 0.178\ngini = 0.036\nsamples = 221\nvalue = [217, 4]\nclass = Name of first class", fillcolor="#e5833d"] ;
2 -> 3 ;
4 [label="mean concave points <= 0.05\ngini = 0.027\nsamples = 220\nvalue = [217, 3]\nclass = Name of first class", fillcolor="#e5833c"] ;
3 -> 4 ;
5 [label="fractal dimension error <= 0.001\ngini = 0.018\nsamples = 217\nvalue = [215, 2]\nclass = Name of first class", fillcolor="#e5823b"] ;
4 -> 5 ;
6 [label="worst symmetry <= 0.285\ngini = 0.245\nsamples = 7\nvalue = [6, 1]\nclass = Name of first class", fillcolor="#e9965a"] ;
5 -> 6 ;
7 [label="gini = 0.0\nsamples = 6\nvalue = [6, 0]\nclass = Name of first class", fillcolor="#e58139"] ;
6 -> 7 ;
8 [label="gini = 0.0\nsamples = 1\nvalue = [0, 1]\nclass = Name of second class", fillcolor="#399de5"] ;
6 -> 8 ;
9 [label="worst texture <= 33.105\ngini = 0.009\nsamples = 210\nvalue = [209, 1]\nclass = Name of first class", fillcolor="#e5823a"] ;
5 -> 9 ;
10 [label="gini = 0.0\nsamples = 195\nvalue = [195, 0]\nclass = Name of first class", fillcolor="#e58139"] ;
9 -> 10 ;
11 [label="worst texture <= 33.56\ngini = 0.124\nsamples = 15\nvalue = [14, 1]\nclass = Name of first class", fillcolor="#e78a47"] ;
9 -> 11 ;
12 [label="gini = 0.0\nsamples = 1\nvalue = [0, 1]\nclass = Name of second class", fillcolor="#399de5"] ;
11 -> 12 ;
13 [label="gini = 0.0\nsamples = 14\nvalue = [14, 0]\nclass = Name of first class", fillcolor="#e58139"] ;
11 -> 13 ;
14 [label="texture error <= 0.627\ngini = 0.444\nsamples = 3\nvalue = [2, 1]\nclass = Name of first class", fillcolor="#f2c09c"] ;
4 -> 14 ;
15 [label="gini = 0.0\nsamples = 1\nvalue = [0, 1]\nclass = Name of second class", fillcolor="#399de5"] ;
14 -> 15 ;
16 [label="gini = 0.0\nsamples = 2\nvalue = [2, 0]\nclass = Name of first class", fillcolor="#e58139"] ;
14 -> 16 ;
17 [label="gini = 0.0\nsamples = 1\nvalue = [0, 1]\nclass = Name of second class", fillcolor="#399de5"] ;
3 -> 17 ;
18 [label="mean symmetry <= 0.166\ngini = 0.5\nsamples = 6\nvalue = [3, 3]\nclass = Name of first class", fillcolor="#ffffff"] ;
2 -> 18 ;
19 [label="gini = 0.0\nsamples = 3\nvalue = [0, 3]\nclass = Name of second class", fillcolor="#399de5"] ;
18 -> 19 ;
20 [label="gini = 0.0\nsamples = 3\nvalue = [3, 0]\nclass = Name of first class", fillcolor="#e58139"] ;
18 -> 20 ;
21 [label="worst concavity <= 0.198\ngini = 0.469\nsamples = 8\nvalue = [3, 5]\nclass = Name of second class", fillcolor="#b0d8f5"] ;
1 -> 21 ;
22 [label="gini = 0.0\nsamples = 3\nvalue = [3, 0]\nclass = Name of first class", fillcolor="#e58139"] ;
21 -> 22 ;
23 [label="gini = 0.0\nsamples = 5\nvalue = [0, 5]\nclass = Name of second class", fillcolor="#399de5"] ;
21 -> 23 ;
24 [label="worst texture <= 20.875\ngini = 0.195\nsamples = 146\nvalue = [16, 130]\nclass = Name of second class", fillcolor="#51a9e8"] ;
0 -> 24 [labeldistance=2.5, labelangle=-45, headlabel="False"] ;
25 [label="mean concave points <= 0.079\ngini = 0.415\nsamples = 17\nvalue = [12, 5]\nclass = Name of first class", fillcolor="#f0b58b"] ;
24 -> 25 ;
26 [label="gini = 0.0\nsamples = 12\nvalue = [12, 0]\nclass = Name of first class", fillcolor="#e58139"] ;
25 -> 26 ;
27 [label="gini = 0.0\nsamples = 5\nvalue = [0, 5]\nclass = Name of second class", fillcolor="#399de5"] ;
25 -> 27 ;
28 [label="worst perimeter <= 97.155\ngini = 0.06\nsamples = 129\nvalue = [4, 125]\nclass = Name of second class", fillcolor="#3fa0e6"] ;
24 -> 28 ;
29 [label="worst texture <= 25.925\ngini = 0.48\nsamples = 5\nvalue = [3, 2]\nclass = Name of first class", fillcolor="#f6d5bd"] ;
28 -> 29 ;
30 [label="gini = 0.0\nsamples = 3\nvalue = [3, 0]\nclass = Name of first class", fillcolor="#e58139"] ;
29 -> 30 ;
31 [label="gini = 0.0\nsamples = 2\nvalue = [0, 2]\nclass = Name of second class", fillcolor="#399de5"] ;
29 -> 31 ;
32 [label="mean smoothness <= 0.079\ngini = 0.016\nsamples = 124\nvalue = [1, 123]\nclass = Name of second class", fillcolor="#3b9ee5"] ;
28 -> 32 ;
33 [label="gini = 0.0\nsamples = 1\nvalue = [1, 0]\nclass = Name of first class", fillcolor="#e58139"] ;
32 -> 33 ;
34 [label="gini = 0.0\nsamples = 123\nvalue = [0, 123]\nclass = Name of second class", fillcolor="#399de5"] ;
32 -> 34 ;
}
