digraph Tree {
node [shape=box, style="filled, rounded", color="black", fontname="helvetica"] ;
edge [fontname="helvetica"] ;
0 [label="worst concave points <= 0.142\ngini = 0.468\nsamples = 381\nvalue = [239, 142]\nclass = Name of first class", fillcolor="#f4ccaf"] ;
1 [label="worst radius <= 16.805\ngini = 0.14\nsamples = 251\nvalue = [232, 19]\nclass = Name of first class", fillcolor="#e78b49"] ;
0 -> 1 [labeldistance=2.5, labelangle=45, headlabel="True"] ;
2 [label="radius error <= 0.643\ngini = 0.05\nsamples = 232\nvalue = [226, 6]\nclass = Name of first class", fillcolor="#e6843e"] ;
1 -> 2 ;
3 [label="gini = 0.034\nsamples = 229\nvalue = [225, 4]\nclass = Name of first class", fillcolor="#e5833d"] ;
2 -> 3 ;
4 [label="gini = 0.444\nsamples = 3\nvalue = [1, 2]\nclass = Name of second class", fillcolor="#9ccef2"] ;
2 -> 4 ;
5 [label="mean texture <= 19.545\ngini = 0.432\nsamples = 19\nvalue = [6, 13]\nclass = Name of second class", fillcolor="#94caf1"] ;
1 -> 5 ;
6 [label="gini = 0.375\nsamples = 8\nvalue = [6, 2]\nclass = Name of first class", fillcolor="#eeab7b"] ;
5 -> 6 ;
7 [label="gini = 0.0\nsamples = 11\nvalue = [0, 11]\nclass = Name of second class", fillcolor="#399de5"] ;
5 -> 7 ;
8 [label="area error <= 18.095\ngini = 0.102\nsamples = 130\nvalue = [7, 123]\nclass = Name of second class", fillcolor="#44a3e6"] ;
0 -> 8 [labeldistance=2.5, labelangle=-45, headlabel="False"] ;
9 [label="mean smoothness <= 0.115\ngini = 0.408\nsamples = 7\nvalue = [5, 2]\nclass = Name of first class", fillcolor="#efb388"] ;
8 -> 9 ;
10 [label="gini = 0.0\nsamples = 5\nvalue = [5, 0]\nclass = Name of first class", fillcolor="#e58139"] ;
9 -> 10 ;
11 [label="gini = 0.0\nsamples = 2\nvalue = [0, 2]\nclass = Name of second class", fillcolor="#399de5"] ;
9 -> 11 ;
12 [label="worst radius <= 12.38\ngini = 0.032\nsamples = 123\nvalue = [2, 121]\nclass = Name of second class", fillcolor="#3c9fe5"] ;
8 -> 12 ;
13 [label="gini = 0.0\nsamples = 1\nvalue = [1, 0]\nclass = Name of first class", fillcolor="#e58139"] ;
12 -> 13 ;
14 [label="gini = 0.016\nsamples = 122\nvalue = [1, 121]\nclass = Name of second class", fillcolor="#3b9ee5"] ;
12 -> 14 ;
}
